-4.420000000000000318e-02
-8.500000000000000611e-03
-1.237999999999999934e-01
-6.029999999999999943e-02
3.265000000000000124e-01
2.457999999999999907e-01
-5.131000000000000005e-01
-5.522000000000000242e-01
-1.540000000000000049e-02
-3.799999999999999906e-02
-3.317600000000000104e+00
4.485000000000000098e-01
-2.179999999999999993e-02
-1.450000000000000074e-02
-5.154999999999999583e-01
6.750000000000000444e-01
-8.999999999999999320e-03
2.679000000000000270e-01
6.670000000000000373e-01
-4.190999999999999726e-01
-7.080999999999999517e-01
2.817000000000000060e-01
6.169999999999999929e-01
5.663000000000000256e-01
-6.012999999999999456e-01
-1.260000000000000009e-02
4.082999999999999963e-01
3.663000000000000145e-01
-9.765000000000000346e-01
1.983999999999999930e-01
6.508000000000000451e-01
-3.383999999999999786e-01
2.272000000000000131e-01
-5.543000000000000149e-01
5.651000000000000467e-01
5.492000000000000215e-01
-6.484999999999999654e-01
-2.013000000000000067e-01
1.650000000000000078e-02
-1.766999999999999960e-01
6.800000000000000488e-02
-5.770999999999999464e-01
-2.834999999999999742e-01
5.681000000000000494e-01
3.988999999999999768e-01
4.491999999999999882e-01
-1.499000000000000055e-01
-3.377000000000000002e-01
6.229999999999999982e-01
2.783999999999999808e-01
1.810000000000000150e-02
1.223000000000000059e-01
-4.030000000000000249e-02
-5.870000000000000218e-02
1.653000000000000025e-01
-6.891000000000000458e-01
1.406000000000000028e-01
4.517999999999999794e-01
3.178000000000000269e-01
-3.971000000000000085e-01
-1.082999999999999935e-01
