1.255600000000000049e+00
9.847000000000000197e-01
-1.213600000000000012e+00
1.053900000000000059e+00
-4.883000000000000118e-01
4.658999999999999808e-01
1.009800000000000031e+00
-1.281400000000000095e+00
6.223999999999999533e-01
3.800999999999999934e-01
9.579999999999999627e-01
-2.189999999999999933e-02
-2.933999999999999941e-01
3.438999999999999835e-01
-5.042999999999999705e-01
-8.420999999999999597e-01
-2.195999999999999897e-01
9.737999999999999989e-01
-3.231999999999999873e-01
1.478900000000000103e+00
-4.663999999999999813e-01
6.759999999999999343e-02
3.831999999999999851e+00
1.859999999999999987e-01
6.182999999999999607e-01
-2.510299999999999976e+00
1.310999999999999943e-01
-1.367199999999999971e+00
8.860000000000000098e-01
9.999000000000000110e-01
-3.380000000000000226e-01
2.504000000000000115e-01
3.109999999999999987e-01
7.618000000000000327e-01
-1.206700000000000106e+00
-2.646999999999999909e-01
3.170999999999999930e-01
-4.188000000000000056e-01
-8.080000000000000515e-01
2.792999999999999927e-01
-1.842300000000000049e+00
3.426000000000000156e-01
-8.320999999999999508e-01
7.691000000000000059e-01
-8.797000000000000375e-01
-5.718999999999999639e-01
7.598000000000000309e-01
1.726000000000000034e-01
2.873999999999999888e-01
-9.289999999999999647e-02
-9.790000000000000091e-02
-4.505000000000000115e-01
3.688000000000000167e-01
-1.273900000000000032e+00
6.384999999999999565e-01
3.710000000000000103e-02
2.501999999999999780e-01
