-2.788999999999999813e-01
-2.837000000000000077e-01
-1.943000000000000005e-01
-4.187000000000000166e-01
2.110000000000000070e-02
1.710000000000000062e-02
2.053999999999999826e+00
-6.896999999999999797e-01
5.100000000000000366e-03
6.700000000000000226e-03
-1.618900000000000006e+00
2.826000000000000179e-01
-4.430999999999999939e-01
-8.544000000000000483e-01
-4.150000000000000216e-02
-9.729999999999999760e-01
-1.283999999999999864e-01
7.228999999999999870e-01
-2.111999999999999988e-01
6.629999999999999782e-02
-7.074000000000000288e-01
-2.945999999999999730e-01
-1.441599999999999993e+00
-5.399000000000000465e-01
-5.358000000000000540e-01
4.456999999999999851e-01
1.003200000000000092e+00
-6.989999999999999547e-01
3.784000000000000141e-01
7.495000000000000551e-01
-7.979999999999999594e-02
-3.760000000000000009e-01
-8.867000000000000437e-01
4.844999999999999862e-01
-7.915999999999999703e-01
6.187000000000000277e-01
-1.546699999999999964e+00
1.709899999999999975e+00
-4.572999999999999843e-01
-1.243700000000000028e+00
3.854000000000000203e-01
1.321900000000000075e+00
-1.463400000000000034e+00
-1.665000000000000091e-01
7.512999999999999678e-01
-5.294999999999999707e-01
6.307000000000000384e-01
3.135000000000000009e-01
3.048000000000000154e-01
-1.179000000000000048e-01
-1.945000000000000062e-01
1.266699999999999937e+00
-9.856000000000000316e-01
5.371000000000000218e-01
7.358999999999999986e-01
-5.161000000000000032e-01
7.240999999999999659e-01
-7.159999999999999698e-01
-1.504000000000000059e-01
-6.019999999999999796e-01
4.588999999999999746e-01
