3.400000000000000244e-01
8.683999999999999497e-01
-2.769999999999999893e-02
-1.879000000000000115e-01
1.637899999999999912e+00
-7.689000000000000279e-01
2.806700000000000195e+00
-7.549999999999999767e-02
-1.331800000000000095e+00
-2.096699999999999786e+00
1.517999999999999905e-01
3.890000000000000124e-01
3.299000000000000266e-01
1.554100000000000037e+00
2.805000000000000271e-01
-1.738999999999999990e-01
-8.821999999999999842e-01
-4.219999999999999862e-01
-1.108929999999999971e+01
-6.779999999999999916e-02
-1.150999999999999940e-01
8.740000000000000546e-02
-5.975000000000000311e-01
4.345999999999999863e-01
-9.983100000000000307e+00
-1.469000000000000028e-01
3.272999999999999798e-01
6.643999999999999906e-01
-4.575000000000000178e-01
-1.176399999999999890e+00
1.237300000000000066e+00
3.729999999999999982e-01
9.546999999999999931e-01
-1.568300000000000027e+00
2.369600000000000151e+00
2.703999999999999737e-01
-2.766000000000000125e-01
-1.761000000000000065e-01
-5.069899999999999629e+00
2.109100000000000197e+00
-4.099999999999999756e-01
2.918000000000000038e-01
-3.372999999999999887e-01
-1.817700000000000093e+00
1.792699999999999960e+00
-9.485000000000000098e-01
2.252000000000000113e-01
-5.481000000000000316e-01
-3.530800000000000161e+00
2.185000000000000053e+00
-7.026000000000000023e-01
5.423000000000000043e-01
-8.149999999999999467e-01
1.129000000000000004e+00
4.753000000000000003e-01
9.025999999999999579e-01
2.336999999999999911e-01
