1.427300000000000013e+00
3.200000000000000153e-03
-2.599999999999999881e-03
-1.252199999999999980e+00
3.950000000000000039e-02
6.539999999999999980e-02
1.326899999999999968e+00
-3.723000000000000198e-01
6.087000000000000188e-01
-4.832000000000000184e-01
1.127599999999999936e+00
3.209000000000000186e-01
2.089999999999999844e-02
-3.625999999999999890e+00
3.299999999999999982e-03
5.182999999999999829e-01
-3.735300000000000065e+00
-5.938999999999999835e-01
4.615000000000000213e-01
-1.554400000000000004e+00
5.423999999999999932e-01
-3.690799999999999859e+00
-4.240999999999999770e-01
7.075000000000000178e-01
-7.995999999999999774e-01
1.801999999999999991e-01
-6.666999999999999593e-01
-4.436999999999999833e-01
-4.993000000000000216e-01
-7.108999999999999764e-01
-6.049999999999999822e-02
-1.115299999999999958e+00
-2.924999999999999822e-01
-1.570999999999999897e-01
-7.393999999999999462e-01
-8.459999999999999465e-02
-5.560000000000000497e-01
-5.856000000000000094e-01
2.210999999999999910e-01
2.716999999999999971e-01
-1.849999999999999908e-02
7.166000000000000147e-01
5.407999999999999474e-01
4.758999999999999897e-01
3.098000000000000198e-01
8.569999999999999840e-02
-3.230000000000000232e-02
-3.783000000000000251e-01
-4.000000000000000083e-03
-4.741000000000000214e-01
-2.709999999999999909e-02
-3.165999999999999925e-01
6.639000000000000457e-01
3.827999999999999736e-01
-2.195999999999999897e-01
-4.171000000000000263e-01
-2.152999999999999914e-01
3.184000000000000163e-01
-3.819999999999999785e-02
-1.330000000000000071e-01
3.643000000000000127e-01
