-5.231000000000000094e-01
9.836000000000000298e-01
-1.433200000000000029e+00
1.389899999999999913e+00
5.879999999999999810e-02
-3.769000000000000128e-01
-4.326999999999999735e-01
-2.910600000000000076e+00
6.716999999999999638e-01
-1.385999999999999899e+00
1.107299999999999951e+00
1.446000000000000063e-01
-1.734799999999999898e+00
1.176500000000000101e+00
1.198000000000000037e-01
1.400000000000000029e-02
-4.097000000000000086e-01
-4.869999999999999885e-01
9.754000000000000448e-01
2.494000000000000106e-01
7.623999999999999666e-01
-6.654999999999999805e-01
9.201000000000000290e-01
-3.048799999999999955e+00
-5.919900000000000162e+00
1.883499999999999952e+00
-2.546100000000000030e+00
-2.231899999999999995e+00
-1.413300000000000001e+00
-2.104999999999999927e-01
-1.228399999999999936e+00
4.389000000000000123e-01
1.010699999999999932e+00
-1.806499999999999995e+00
5.669299999999999784e+00
8.124000000000000110e-01
2.716999999999999971e-01
5.466999999999999638e-01
-8.627000000000000224e-01
6.180799999999999628e+00
1.022799999999999931e+00
3.453999999999999848e-01
4.698999999999999844e-01
-1.208399999999999919e+00
5.079200000000000159e+00
-3.175000000000000044e-01
4.087000000000000077e-01
-6.137000000000000233e-01
1.404900000000000038e+00
-5.884100000000000108e+00
-1.756000000000000061e-01
-4.808999999999999941e-01
8.286000000000000032e-01
8.145999999999999908e-01
8.133000000000000229e-01
-9.987000000000000322e-01
5.650000000000000161e-02
